{
  "levels": [
    {
      "inputs": [0.5765757535828331, 0.21761401033232786, 0, 0, 0],
      "outputs": [1, 1, 1, 1, 1, 1],
      "biases": [
        -0.42658197188579283, -0.24071772011363995, 0.23518667161530837,
        -0.05984762556697158, -0.3202848685800708, -0.1700037192681969
      ],
      "weights": [
        [
          0.4155657943960399, -0.042325429219244794, 0.4599929491060638,
          0.5160815541479559, 0.10923394087024751, -0.09646830401260942
        ],
        [
          0.2960097090382625, 0.204989804565338, -0.05133495886511745,
          0.07165730376016462, -0.006462119655117043, 0.20677608006165277
        ],
        [
          -0.45173599864292413, -0.11394185806484777, 0.20819345966587433,
          0.026538110896008382, 0.40236690723725665, 0.5483159497655553
        ],
        [
          -0.12608778894568856, -0.36871545540505374, 0.36224128407878226,
          -0.606266242465235, 0.19201801256812187, 0.06154767025131379
        ],
        [
          0.6399423746521664, -0.3823397617320317, -0.16554280319969852,
          -0.5448806470761272, 0.3713996502849255, -0.2298915583095696
        ]
      ]
    },
    {
      "inputs": [1, 1, 1, 1, 1, 1],
      "outputs": [1, 1, 1, 0],
      "biases": [
        0.10799311344886123, -0.2054179428178885, -0.2926725163484001,
        0.37892525210380723
      ],
      "weights": [
        [
          -0.2707252707720418, 0.05660580893793658, 0.1381404121677887,
          0.01941163887945849
        ],
        [
          -0.2266437308420744, -0.2729381413955232, 0.3824049685816757,
          -0.14150857145388246
        ],
        [
          -0.09951424503604299, 0.4814411341526844, 0.2003757864343001,
          0.2533561274306777
        ],
        [
          0.2733187754009925, -0.16609403774800197, 0.0201480037278092,
          -0.5874364052404961
        ],
        [
          0.5930805690758876, 0.3269094079912976, -0.24682057303564323,
          -0.2264465249609006
        ],
        [
          0.21859758430421378, -0.5136371654279609, -0.4576628271959984,
          0.06956132980392901
        ]
      ]
    }
  ]
}
